digraph Tree {
node [shape=box, style="filled, rounded", color="black", fontname=helvetica] ;
edge [fontname=helvetica] ;
0 [label=<petal length (cm) &le; 2.35<br/>gini = 0.6643<br/>samples = 105<br/>value = [34, 32, 39]<br/>class = virginica>, fillcolor="#8139e512"] ;
1 [label=<gini = 0.0<br/>samples = 34<br/>value = [34, 0, 0]<br/>class = setosa>, fillcolor="#e58139ff"] ;
0 -> 1 [labeldistance=2.5, labelangle=45, headlabel="True"] ;
2 [label=<petal length (cm) &le; 4.95<br/>gini = 0.4951<br/>samples = 71<br/>value = [0, 32, 39]<br/>class = virginica>, fillcolor="#8139e52e"] ;
0 -> 2 [labeldistance=2.5, labelangle=-45, headlabel="False"] ;
3 [label=<petal width (cm) &le; 1.65<br/>gini = 0.1609<br/>samples = 34<br/>value = [0, 31, 3]<br/>class = versicolor>, fillcolor="#39e581e6"] ;
2 -> 3 ;
4 [label=<gini = 0.0<br/>samples = 30<br/>value = [0, 30, 0]<br/>class = versicolor>, fillcolor="#39e581ff"] ;
3 -> 4 ;
5 [label=<sepal width (cm) &le; 3.1<br/>gini = 0.375<br/>samples = 4<br/>value = [0, 1, 3]<br/>class = virginica>, fillcolor="#8139e5aa"] ;
3 -> 5 ;
6 [label=<gini = 0.0<br/>samples = 3<br/>value = [0, 0, 3]<br/>class = virginica>, fillcolor="#8139e5ff"] ;
5 -> 6 ;
7 [label=<gini = 0.0<br/>samples = 1<br/>value = [0, 1, 0]<br/>class = versicolor>, fillcolor="#39e581ff"] ;
5 -> 7 ;
8 [label=<petal width (cm) &le; 1.75<br/>gini = 0.0526<br/>samples = 37<br/>value = [0, 1, 36]<br/>class = virginica>, fillcolor="#8139e5f8"] ;
2 -> 8 ;
9 [label=<petal width (cm) &le; 1.65<br/>gini = 0.375<br/>samples = 4<br/>value = [0, 1, 3]<br/>class = virginica>, fillcolor="#8139e5aa"] ;
8 -> 9 ;
10 [label=<gini = 0.0<br/>samples = 3<br/>value = [0, 0, 3]<br/>class = virginica>, fillcolor="#8139e5ff"] ;
9 -> 10 ;
11 [label=<gini = 0.0<br/>samples = 1<br/>value = [0, 1, 0]<br/>class = versicolor>, fillcolor="#39e581ff"] ;
9 -> 11 ;
12 [label=<gini = 0.0<br/>samples = 33<br/>value = [0, 0, 33]<br/>class = virginica>, fillcolor="#8139e5ff"] ;
8 -> 12 ;
}